Language model created by QuickLM on Tue Dec 29 01:59:34 EST 2020
Copyright (c) 1996-2010 Carnegie Mellon University and Alexander I. Rudnicky

The model is in standard ARPA format, designed by Doug Paul while he was at MITRE.

The code that was used to produce this language model is available in Open Source.
Please visit http://www.speech.cs.cmu.edu/tools/ for more information

The (fixed) discount mass is 0.5. The backoffs are computed using the ratio method.
This model based on a corpus of 80 sentences and 252 words

\data\
ngram 1=252
ngram 2=358
ngram 3=296

\1-grams:
-1.0569 </s> -0.3010
-1.0569 <s> -0.2554
-2.9600 অনর্থ -0.3006
-2.2610 অনেক -0.2986
-2.9600 অন্ধকার -0.3006
-2.9600 অন্যায়ের -0.3006
-2.9600 অপর -0.3006
-2.9600 অপেক্ষা -0.2612
-2.9600 অর্থ -0.3006
-2.9600 অহংকার -0.3006
-2.9600 আকাশ -0.3001
-2.9600 আকাশটা -0.3006
-2.9600 আকাশে -0.2986
-2.9600 আগামীকাল -0.3001
-2.4829 আছে -0.2612
-2.9600 আধার -0.2612
-2.9600 আম -0.2612
-2.6590 আমরা -0.3001
-2.9600 আমাদের -0.3006
-2.3579 আমার -0.2982
-2.3579 আমি -0.2991
-2.9600 আরাম -0.3001
-2.9600 আসি -0.2612
-2.9600 ইনি -0.2991
-2.6590 উচিত -0.2612
-2.9600 উত্তরে -0.3006
-2.9600 উৎস -0.3006
-2.9600 উড়ে -0.3006
-2.9600 ঋতু -0.2612
-2.9600 এই -0.3006
-2.9600 একটি -0.3006
-2.9600 এখানে -0.3006
-2.9600 এনেছেন -0.2612
-2.9600 এমনি -0.2996
-2.9600 এসময় -0.2986
-2.9600 কচ্ছপ -0.2996
-2.4829 কথা -0.2996
-2.9600 কদবেলে -0.3006
-2.9600 করছিল -0.2612
-2.9600 করতে -0.3006
-2.9600 করা -0.3001
-2.4829 করে -0.2601
-2.9600 কলমে -0.2991
-2.9600 কাটে -0.2612
-2.9600 কাপড় -0.3006
-2.9600 কাল -0.3006
-2.9600 কৃষকরা -0.3006
-2.9600 ক্রমাগত -0.3006
-2.9600 ক্রিকেট -0.3006
-2.9600 খাই -0.2612
-2.9600 খাওয়ার -0.3006
-2.4829 খুব -0.2982
-2.9600 খুলনা -0.2996
-2.9600 খেলা -0.3006
-2.9600 খেলে -0.2612
-2.9600 গতিতে -0.3006
-2.9600 গাও -0.2612
-2.9600 গাছগুলোতে -0.3006
-2.9600 গাছে -0.3006
-2.9600 গান -0.3006
-2.9600 গাড়ি -0.3006
-2.9600 গিয়েছিলাম -0.2612
-2.9600 গুরুজনের -0.3006
-2.9600 গেলাম -0.2612
-2.9600 গোলাপ -0.3006
-2.9600 ঘটায় -0.2612
-2.9600 ঘুম -0.3006
-2.9600 ঘুরে -0.3006
-2.9600 ঘুড়ি -0.2612
-2.9600 ঘোড়া -0.3006
-2.9600 চল -0.3006
-2.9600 চলে -0.2612
-2.9600 চালায় -0.2612
-2.9600 চিনিনা -0.2612
-2.9600 চিহ্ন -0.3006
-2.9600 চেয়ে -0.3001
-2.9600 চোখে -0.3006
-2.9600 ছাত্রদের -0.3006
-2.9600 ছিল -0.2612
-2.9600 ছুটিতে -0.2996
-2.9600 ছেলেরা -0.3006
-2.6590 ছোট -0.3001
-2.9600 জনসংখ্যা -0.3006
-2.9600 জন্য -0.2996
-2.9600 জলে -0.3006
-2.9600 জানানো -0.3001
-2.9600 জিয়াপি -0.3006
-2.9600 জীবন -0.2612
-2.9600 জেলেরা -0.3006
-2.9600 জোনাকি -0.3006
-2.9600 জ্ঞানের -0.3006
-2.9600 ঝাল -0.2612
-2.9600 ঝিনুক -0.2996
-2.9600 টানে -0.2612
-2.9600 টিক -0.3006
-2.9600 টেবিলে -0.3001
-2.9600 টেলিভিশনে -0.3006
-2.9600 ঢাকা -0.2612
-2.9600 তিনি -0.3006
-2.9600 তিলে -0.3006
-2.6590 তুমি -0.2991
-2.9600 তুলে -0.2612
-2.9600 তৈল -0.2991
-2.9600 থাকে -0.2612
-2.9600 থাকেন -0.2612
-2.4829 থেকে -0.2996
-2.9600 দই -0.2991
-2.9600 দাও -0.2612
-2.9600 দির্ঘতম -0.3006
-2.9600 দুধ -0.3006
-2.9600 দুধে -0.3006
-2.9600 দেখা -0.3006
-2.9600 দেখায় -0.2612
-2.9600 দেশ -0.2612
-2.9600 ধরে -0.2612
-2.9600 ধান -0.3006
-2.9600 ধির -0.3006
-2.9600 ধুয়ে -0.3006
-2.9600 ধোপা -0.3006
-2.9600 নদী -0.2612
-2.9600 নববর্ষে -0.3006
-2.9600 না -0.2612
-2.9600 নাম -0.3006
-2.9600 নামালাম -0.2612
-2.9600 নিতান্তই -0.2991
-2.9600 নীল -0.2612
-2.9600 নেই -0.2612
-2.9600 নৌকা -0.3006
-2.9600 পছন্দ -0.2996
-2.9600 পতনের -0.3006
-2.9600 পরেছে -0.2612
-2.9600 পর্বতে -0.2612
-2.6590 পাখিটি -0.3001
-2.9600 পাচ্ছে -0.2612
-2.9600 পাতাও -0.3006
-2.9600 পানির -0.3006
-2.9600 পাপ, -0.3006
-2.9600 পাপে -0.3006
-2.9600 পিকনিকে -0.2996
-2.9600 পুরোহিতরা -0.3006
-2.9600 পূজার -0.3006
-2.9600 পৃথিবীর -0.3006
-2.9600 প্রচুর -0.3006
-2.9600 প্রতি -0.3006
-2.9600 প্রতিদিন -0.2991
-2.9600 প্রতিবাদ -0.3006
-2.9600 প্রভাতফেরি -0.3006
-2.9600 প্রানি -0.2612
-2.6590 প্রিয় -0.3001
-2.9600 পড়তে -0.3001
-2.9600 পড়াচ্ছেন -0.2612
-2.9600 ফলের -0.3006
-2.9600 ফসল -0.2612
-2.9600 ফাকিবাজ -0.2612
-2.9600 ফিরছে -0.2612
-2.9600 ফুটবল -0.3006
-2.9600 ফুল -0.3001
-2.9600 ফুলের -0.3006
-2.6590 ফোটে -0.2612
-2.9600 বইগুলো -0.3006
-2.9600 বইছে -0.2612
-2.9600 বনে -0.3006
-2.9600 বন্ধু -0.2612
-2.9600 বল -0.2612
-2.9600 বসন্তকাল -0.2991
-2.6590 বসলাম -0.2612
-2.9600 বসে -0.2996
-2.9600 বসে। -0.2612
-2.6590 বাংলাদেশের -0.3001
-2.9600 বাইরে -0.2986
-2.9600 বাগানে -0.3006
-2.9600 বাঘ -0.3006
-2.9600 বাজার -0.2996
-2.9600 বাজায় -0.2612
-2.9600 বাতাস -0.3006
-2.9600 বাবা -0.3006
-2.9600 বাবার -0.3006
-2.9600 বাশি -0.3006
-2.9600 বাড়ছে -0.2612
-2.6590 বাড়ি -0.2991
-2.9600 বিনয়ীকে -0.2996
-2.9600 বিড়াল -0.3006
-2.9600 বৃষ্টি -0.2991
-2.9600 বেশি -0.2996
-2.9600 বোন -0.3006
-2.9600 বোলো -0.3006
-2.9600 ব্যথা -0.3006
-2.9600 ব্রাহ্মণ -0.3006
-2.3579 ভালো -0.2986
-2.9600 ভিটামিন -0.2996
-2.9600 মরনশীল -0.2612
-2.9600 মরিচ -0.2986
-2.9600 মাছ -0.3006
-2.9600 মাঝি -0.3006
-2.6590 মাঠে -0.2977
-2.6590 মানুষ -0.2606
-2.9600 মালদ্বীপ -0.3001
-2.9600 মায়ের -0.3006
-2.9600 মুক্তা -0.3006
-2.9600 মুখভার -0.2996
-2.9600 মূল -0.2612
-2.9600 মৃত্যু -0.2612
-2.9600 মেঘনা -0.3001
-2.6590 মেঘে -0.3001
-2.9600 মেলা -0.3006
-2.9600 মেলে -0.2612
-2.9600 ম্যাচ -0.3006
-2.9600 যমুনার -0.3006
-2.9600 যাই -0.2612
-2.9600 যাচ্ছে -0.2612
-2.4829 যাব -0.2612
-2.9600 যায় -0.2612
-2.9600 রাখাল -0.3006
-2.9600 রাজা -0.3006
-2.3579 রাতে -0.2991
-2.9600 রানী -0.2612
-2.9600 রোদে -0.3006
-2.9600 লবন -0.2996
-2.9600 লাইব্রেরি -0.3006
-2.9600 লাগে -0.2612
-2.9600 লেখা -0.2991
-2.9600 লোকটিকে -0.2991
-2.9600 লোভে -0.3006
-2.9600 শরীরটা -0.3006
-2.9600 শহীদদের -0.3006
-2.9600 শিউলি -0.3001
-2.9600 শিক্ষক -0.3006
-2.9600 শীত -0.3006
-2.9600 শীতকাল -0.2991
-2.9600 শুকাচ্ছে -0.2612
-2.9600 শেষে -0.2991
-2.9600 শ্রদ্ধা -0.3006
-2.9600 সকাল -0.3006
-2.9600 সঙ্গে -0.3006
-2.9600 সঠিক -0.3006
-2.9600 সন্ধ্যায় -0.3006
-2.4829 সবাই -0.2991
-2.9600 সমুদ্র -0.3006
-2.9600 সম্মান -0.3006
-2.9600 সাপুড়ে -0.3006
-2.9600 সাপের -0.3006
-2.9600 সুন্দর -0.2612
-2.9600 সে -0.3006
-2.9600 স্কুলব্যাগ -0.2996
-2.9600 স্কুলে -0.3006
-2.9600 হচ্ছিল -0.2612
-2.9600 হচ্ছে -0.3006
-2.9600 হবে -0.2612
-2.9600 হাতমুখ -0.3006
-2.9600 হিমালয় -0.3006
-2.9600 হেমন্তে -0.3006
-2.3579 হয় -0.2612

\2-grams:
-2.2041 <s> অন্যায়ের 0.0000
-2.2041 <s> অর্থ 0.0000
-2.2041 <s> অহংকার 0.0000
-2.2041 <s> আকাশ 0.0000
-2.2041 <s> আকাশটা 0.0000
-2.2041 <s> আকাশে 0.0000
-2.2041 <s> আগামীকাল 0.0000
-1.9031 <s> আমরা 0.0000
-2.2041 <s> আমাদের 0.0000
-1.9031 <s> আমার -0.1761
-1.9031 <s> আমি -0.1761
-2.2041 <s> ইনি 0.0000
-2.2041 <s> এই 0.0000
-2.2041 <s> এখানে 0.0000
-2.2041 <s> এমনি 0.0000
-2.2041 <s> এসময় 0.0000
-2.2041 <s> কচ্ছপ 0.0000
-1.9031 <s> কথা -0.1249
-2.2041 <s> কদবেলে 0.0000
-2.2041 <s> কাল 0.0000
-2.2041 <s> খুব -0.2218
-2.2041 <s> গাছগুলোতে 0.0000
-2.2041 <s> গাছে 0.0000
-2.2041 <s> গুরুজনের 0.0000
-2.2041 <s> গোলাপ 0.0000
-2.2041 <s> ঘোড়া 0.0000
-2.2041 <s> চল 0.0000
-2.2041 <s> ছেলেরা 0.0000
-2.2041 <s> জেলেরা 0.0000
-2.2041 <s> ঝিনুক 0.0000
-2.2041 <s> টেলিভিশনে 0.0000
-2.2041 <s> তিনি 0.0000
-2.2041 <s> তিলে 0.0000
-1.9031 <s> তুমি 0.0000
-2.2041 <s> দুধে 0.0000
-2.2041 <s> ধোপা 0.0000
-2.2041 <s> নববর্ষে 0.0000
-1.9031 <s> পাখিটি 0.0000
-2.2041 <s> পানির 0.0000
-2.2041 <s> পূজার 0.0000
-2.2041 <s> পৃথিবীর 0.0000
-2.2041 <s> ফলের 0.0000
-2.2041 <s> বনে 0.0000
-2.2041 <s> বসন্তকাল 0.0000
-2.2041 <s> বাইরে 0.0000
-2.2041 <s> বাতাস 0.0000
-2.2041 <s> বাবা 0.0000
-2.2041 <s> বিনয়ীকে 0.0000
-2.2041 <s> বিড়াল 0.0000
-2.2041 <s> মরিচ 0.0000
-2.2041 <s> মাঝি 0.0000
-2.2041 <s> মাঠে -0.1761
-2.2041 <s> মানুষ -0.1761
-2.2041 <s> মালদ্বীপ 0.0000
-2.2041 <s> মায়ের 0.0000
-2.2041 <s> মেঘনা 0.0000
-2.2041 <s> মেঘে -0.1761
-2.2041 <s> যমুনার 0.0000
-2.2041 <s> রাখাল 0.0000
-1.7270 <s> রাতে -0.0969
-2.2041 <s> লাইব্রেরি 0.0000
-2.2041 <s> লোকটিকে 0.0000
-2.2041 <s> লোভে 0.0000
-2.2041 <s> শরীরটা 0.0000
-2.2041 <s> শিক্ষক 0.0000
-2.2041 <s> সঠিক 0.0000
-2.2041 <s> সন্ধ্যায় 0.0000
-2.2041 <s> সমুদ্র 0.0000
-2.2041 <s> সাপুড়ে 0.0000
-2.2041 <s> সে 0.0000
-2.2041 <s> স্কুলব্যাগ 0.0000
-2.2041 <s> হেমন্তে 0.0000
-0.3010 অনর্থ ঘটায় 0.0000
-1.0000 অনেক অন্ধকার 0.0000
-1.0000 অনেক ঘুড়ি 0.0000
-1.0000 অনেক ঝাল 0.0000
-1.0000 অনেক ফসল 0.0000
-1.0000 অনেক শীত 0.0000
-0.3010 অন্ধকার ছিল 0.0000
-0.3010 অন্যায়ের প্রতিবাদ 0.0000
-0.3010 অপর নাম 0.0000
-0.3010 অপেক্ষা </s> -0.3010
-0.3010 অর্থ অনর্থ 0.0000
-0.3010 অহংকার পতনের 0.0000
-0.3010 আকাশ মেঘে -0.1761
-0.3010 আকাশটা নীল 0.0000
-0.3010 আকাশে অনেক -0.2553
-0.3010 আগামীকাল বাড়ি -0.1761
-0.3010 আছে </s> -0.3010
-0.3010 আধার </s> -0.3010
-0.3010 আম </s> -0.3010
-0.6021 আমরা খুলনা 0.0000
-0.6021 আমরা স্কুলে 0.0000
-0.3010 আমাদের শহীদদের 0.0000
-0.9031 আমার ছোট -0.1761
-0.9031 আমার প্রিয় -0.1761
-0.9031 আমার বন্ধু 0.0000
-0.9031 আমার শীতকাল 0.0000
-0.9031 আমি চিনিনা 0.0000
-0.9031 আমি প্রতিদিন 0.0000
-0.9031 আমি বাগানে 0.0000
-0.9031 আমি বাবার 0.0000
-0.3010 আরাম প্রিয় -0.1761
-0.3010 আসি </s> -0.3010
-0.3010 ইনি আমার -0.2430
-0.3010 উচিত </s> -0.3010
-0.3010 উত্তরে টিক 0.0000
-0.3010 উৎস হিমালয় 0.0000
-0.3010 উড়ে যাচ্ছে 0.0000
-0.3010 ঋতু </s> -0.3010
-0.3010 এই কলমে 0.0000
-0.3010 একটি পাতাও 0.0000
-0.3010 এখানে ব্রাহ্মণ 0.0000
-0.3010 এনেছেন </s> -0.3010
-0.3010 এমনি করে -0.2218
-0.3010 এসময় অনেক -0.2553
-0.3010 কচ্ছপ খুব -0.2218
-0.7782 কথা বল 0.0000
-0.7782 কথা বোলো 0.0000
-0.7782 কথা শেষে 0.0000
-0.3010 কদবেলে প্রচুর 0.0000
-0.3010 করছিল </s> -0.3010
-0.3010 করতে হবে 0.0000
-0.3010 করা উচিত 0.0000
-0.7782 করে </s> -0.3010
-0.7782 করে বসে 0.0000
-0.7782 করে সকাল 0.0000
-0.3010 কলমে ভালো -0.2430
-0.3010 কাটে </s> -0.3010
-0.3010 কাপড় শুকাচ্ছে 0.0000
-0.3010 কাল পিকনিকে 0.0000
-0.3010 কৃষকরা ধান 0.0000
-0.3010 ক্রমাগত বাড়ছে 0.0000
-0.3010 ক্রিকেট ম্যাচ 0.0000
-0.3010 খাই </s> -0.3010
-0.3010 খাওয়ার জন্য 0.0000
-0.7782 খুব ঘুম 0.0000
-0.7782 খুব ধির 0.0000
-0.7782 খুব ভালো -0.2430
-0.3010 খুলনা যাব 0.0000
-0.3010 খেলা দেখায় 0.0000
-0.3010 খেলে </s> -0.3010
-0.3010 গতিতে চলে 0.0000
-0.3010 গাও </s> -0.3010
-0.3010 গাছগুলোতে একটি 0.0000
-0.3010 গাছে ফুল 0.0000
-0.3010 গান গাও 0.0000
-0.3010 গাড়ি টানে 0.0000
-0.3010 গিয়েছিলাম </s> -0.3010
-0.3010 গুরুজনের সম্মান 0.0000
-0.3010 গেলাম </s> -0.3010
-0.3010 গোলাপ ফুলের 0.0000
-0.3010 ঘটায় </s> -0.3010
-0.3010 ঘুম পাচ্ছে 0.0000
-0.3010 ঘুরে আসি 0.0000
-0.3010 ঘুড়ি </s> -0.3010
-0.3010 ঘোড়া গাড়ি 0.0000
-0.3010 চল ঘুরে 0.0000
-0.3010 চলে </s> -0.3010
-0.3010 চালায় </s> -0.3010
-0.3010 চিনিনা </s> -0.3010
-0.3010 চিহ্ন দাও 0.0000
-0.3010 চেয়ে ছোট -0.1761
-0.3010 চোখে অপেক্ষা 0.0000
-0.3010 ছাত্রদের পড়াচ্ছেন 0.0000
-0.3010 ছিল </s> -0.3010
-0.3010 ছুটিতে সবাই -0.2218
-0.3010 ছেলেরা ফুটবল 0.0000
-0.6021 ছোট দেশ 0.0000
-0.6021 ছোট বোন 0.0000
-0.3010 জনসংখ্যা ক্রমাগত 0.0000
-0.3010 জন্য সবাই -0.2218
-0.3010 জলে লবন 0.0000
-0.3010 জানানো উচিত 0.0000
-0.3010 জিয়াপি এনেছেন 0.0000
-0.3010 জীবন </s> -0.3010
-0.3010 জেলেরা মাছ 0.0000
-0.3010 জোনাকি দেখা 0.0000
-0.3010 জ্ঞানের আধার 0.0000
-0.3010 ঝাল </s> -0.3010
-0.3010 ঝিনুক থেকে -0.2218
-0.3010 টানে </s> -0.3010
-0.3010 টিক চিহ্ন 0.0000
-0.3010 টেবিলে বসলাম 0.0000
-0.3010 টেলিভিশনে ক্রিকেট 0.0000
-0.3010 ঢাকা </s> -0.3010
-0.3010 তিনি নিতান্তই 0.0000
-0.3010 তিলে তৈল 0.0000
-0.6021 তুমি খুব -0.2218
-0.6021 তুমি বেশি 0.0000
-0.3010 তুলে </s> -0.3010
-0.3010 তৈল হয় 0.0000
-0.3010 থাকে </s> -0.3010
-0.3010 থাকেন </s> -0.3010
-0.7782 থেকে জিয়াপি 0.0000
-0.7782 থেকে বইগুলো 0.0000
-0.7782 থেকে মুক্তা 0.0000
-0.3010 দই হয় 0.0000
-0.3010 দাও </s> -0.3010
-0.3010 দির্ঘতম নদী 0.0000
-0.3010 দুধ খাই 0.0000
-0.3010 দুধে দই 0.0000
-0.3010 দেখা যায় 0.0000
-0.3010 দেখায় </s> -0.3010
-0.3010 দেশ </s> -0.3010
-0.3010 ধরে </s> -0.3010
-0.3010 ধান তুলে 0.0000
-0.3010 ধির গতিতে 0.0000
-0.3010 ধুয়ে পড়তে 0.0000
-0.3010 ধোপা রোদে 0.0000
-0.3010 নদী </s> -0.3010
-0.3010 নববর্ষে মেলা 0.0000
-0.3010 না </s> -0.3010
-0.3010 নাম জীবন 0.0000
-0.3010 নামালাম </s> -0.3010
-0.3010 নিতান্তই ভালো -0.2430
-0.3010 নীল </s> -0.3010
-0.3010 নেই </s> -0.3010
-0.3010 নৌকা চালায় 0.0000
-0.3010 পছন্দ করে -0.2218
-0.3010 পতনের মূল 0.0000
-0.3010 পরেছে </s> -0.3010
-0.3010 পর্বতে </s> -0.3010
-0.6021 পাখিটি উড়ে 0.0000
-0.6021 পাখিটি সুন্দর 0.0000
-0.3010 পাচ্ছে </s> -0.3010
-0.3010 পাতাও নেই 0.0000
-0.3010 পানির অপর 0.0000
-0.3010 পাপ, পাপে 0.0000
-0.3010 পাপে মৃত্যু 0.0000
-0.3010 পিকনিকে যাব 0.0000
-0.3010 পুরোহিতরা থাকেন 0.0000
-0.3010 পূজার ছুটিতে 0.0000
-0.3010 পৃথিবীর জনসংখ্যা 0.0000
-0.3010 প্রচুর ভিটামিন 0.0000
-0.3010 প্রতি শ্রদ্ধা 0.0000
-0.3010 প্রতিদিন রাতে -0.2430
-0.3010 প্রতিবাদ করতে 0.0000
-0.3010 প্রভাতফেরি গিয়েছিলাম 0.0000
-0.3010 প্রানি </s> -0.3010
-0.6021 প্রিয় ঋতু 0.0000
-0.6021 প্রিয় প্রানি 0.0000
-0.3010 পড়তে বসলাম 0.0000
-0.3010 পড়াচ্ছেন </s> -0.3010
-0.3010 ফলের রাজা 0.0000
-0.3010 ফসল </s> -0.3010
-0.3010 ফাকিবাজ </s> -0.3010
-0.3010 ফিরছে </s> -0.3010
-0.3010 ফুটবল খেলে 0.0000
-0.3010 ফুল ফোটে 0.0000
-0.3010 ফুলের রানী 0.0000
-0.3010 ফোটে </s> -0.3010
-0.3010 বইগুলো নামালাম 0.0000
-0.3010 বইছে </s> -0.3010
-0.3010 বনে বাঘ 0.0000
-0.3010 বন্ধু </s> -0.3010
-0.3010 বল </s> -0.3010
-0.3010 বসন্তকাল আমার -0.2430
-0.3010 বসলাম </s> -0.3010
-0.3010 বসে আছে 0.0000
-0.3010 বসে। </s> -0.3010
-0.6021 বাংলাদেশের চেয়ে 0.0000
-0.6021 বাংলাদেশের দির্ঘতম 0.0000
-0.3010 বাইরে অনেক -0.2553
-0.3010 বাগানে গেলাম 0.0000
-0.3010 বাঘ থাকে 0.0000
-0.3010 বাজার থেকে -0.2218
-0.3010 বাজায় </s> -0.3010
-0.3010 বাতাস বইছে 0.0000
-0.3010 বাবা বাজার 0.0000
-0.3010 বাবার সঙ্গে 0.0000
-0.3010 বাশি বাজায় 0.0000
-0.3010 বাড়ছে </s> -0.3010
-0.6021 বাড়ি ফিরছে 0.0000
-0.6021 বাড়ি যাব 0.0000
-0.3010 বিনয়ীকে সবাই -0.2218
-0.3010 বিড়াল আরাম 0.0000
-0.3010 বৃষ্টি হয় 0.0000
-0.3010 বেশি কথা -0.2218
-0.3010 বোন ফাকিবাজ 0.0000
-0.3010 বোলো না 0.0000
-0.3010 ব্যথা করছিল 0.0000
-0.3010 ব্রাহ্মণ পুরোহিতরা 0.0000
-0.9031 ভালো গান 0.0000
-0.9031 ভালো মানুষ -0.1761
-0.9031 ভালো লাগে 0.0000
-0.9031 ভালো লেখা 0.0000
-0.3010 ভিটামিন আছে 0.0000
-0.3010 মরনশীল </s> -0.3010
-0.3010 মরিচ অনেক -0.2553
-0.3010 মাছ ধরে 0.0000
-0.3010 মাঝি নৌকা 0.0000
-0.6021 মাঠে অনেক -0.2553
-0.6021 মাঠে মাঠে -0.1761
-0.6021 মানুষ </s> -0.3010
-0.6021 মানুষ মরনশীল 0.0000
-0.3010 মালদ্বীপ বাংলাদেশের -0.1761
-0.3010 মায়ের চোখে 0.0000
-0.3010 মুক্তা মেলে 0.0000
-0.3010 মুখভার করে -0.2218
-0.3010 মূল </s> -0.3010
-0.3010 মৃত্যু </s> -0.3010
-0.3010 মেঘনা বাংলাদেশের -0.1761
-0.6021 মেঘে ঢাকা 0.0000
-0.6021 মেঘে বৃষ্টি 0.0000
-0.3010 মেলা বসে। 0.0000
-0.3010 মেলে </s> -0.3010
-0.3010 ম্যাচ হচ্ছিল 0.0000
-0.3010 যমুনার উৎস 0.0000
-0.3010 যাই </s> -0.3010
-0.3010 যাচ্ছে </s> -0.3010
-0.3010 যাব </s> -0.3010
-0.3010 যায় </s> -0.3010
-0.3010 রাখাল বাশি 0.0000
-0.3010 রাজা আম 0.0000
-0.9031 রাতে খাওয়ার 0.0000
-0.9031 রাতে জোনাকি 0.0000
-0.9031 রাতে দুধ 0.0000
-0.9031 রাতে শিউলি 0.0000
-0.3010 রানী </s> -0.3010
-0.3010 রোদে কাপড় 0.0000
-0.3010 লবন আছে 0.0000
-0.3010 লাইব্রেরি হচ্ছে 0.0000
-0.3010 লাগে </s> -0.3010
-0.3010 লেখা হয় 0.0000
-0.3010 লোকটিকে আমি -0.2430
-0.3010 লোভে পাপ, 0.0000
-0.3010 শরীরটা ব্যথা 0.0000
-0.3010 শহীদদের প্রতি 0.0000
-0.3010 শিউলি ফোটে 0.0000
-0.3010 শিক্ষক ছাত্রদের 0.0000
-0.3010 শীত পরেছে 0.0000
-0.3010 শীতকাল ভালো -0.2430
-0.3010 শুকাচ্ছে </s> -0.3010
-0.3010 শেষে আমি -0.2430
-0.3010 শ্রদ্ধা জানানো 0.0000
-0.3010 সকাল কাটে 0.0000
-0.3010 সঙ্গে প্রভাতফেরি 0.0000
-0.3010 সঠিক উত্তরে 0.0000
-0.3010 সন্ধ্যায় হাতমুখ 0.0000
-0.7782 সবাই টেবিলে 0.0000
-0.7782 সবাই পছন্দ 0.0000
-0.7782 সবাই বাড়ি -0.1761
-0.3010 সমুদ্র জলে 0.0000
-0.3010 সম্মান করা 0.0000
-0.3010 সাপুড়ে সাপের 0.0000
-0.3010 সাপের খেলা 0.0000
-0.3010 সুন্দর </s> -0.3010
-0.3010 সে মুখভার 0.0000
-0.3010 স্কুলব্যাগ থেকে -0.2218
-0.3010 স্কুলে যাই 0.0000
-0.3010 হচ্ছিল </s> -0.3010
-0.3010 হচ্ছে জ্ঞানের 0.0000
-0.3010 হবে </s> -0.3010
-0.3010 হাতমুখ ধুয়ে 0.0000
-0.3010 হিমালয় পর্বতে 0.0000
-0.3010 হেমন্তে কৃষকরা 0.0000
-0.3010 হয় </s> -0.3010

\3-grams:
-0.3010 <s> অন্যায়ের প্রতিবাদ
-0.3010 <s> অর্থ অনর্থ
-0.3010 <s> অহংকার পতনের
-0.3010 <s> আকাশ মেঘে
-0.3010 <s> আকাশটা নীল
-0.3010 <s> আকাশে অনেক
-0.3010 <s> আগামীকাল বাড়ি
-0.6021 <s> আমরা খুলনা
-0.6021 <s> আমরা স্কুলে
-0.3010 <s> আমাদের শহীদদের
-0.6021 <s> আমার ছোট
-0.6021 <s> আমার শীতকাল
-0.6021 <s> আমি প্রতিদিন
-0.6021 <s> আমি বাবার
-0.3010 <s> ইনি আমার
-0.3010 <s> এই কলমে
-0.3010 <s> এখানে ব্রাহ্মণ
-0.3010 <s> এমনি করে
-0.3010 <s> এসময় অনেক
-0.3010 <s> কচ্ছপ খুব
-0.6021 <s> কথা বোলো
-0.6021 <s> কথা শেষে
-0.3010 <s> কদবেলে প্রচুর
-0.3010 <s> কাল পিকনিকে
-0.3010 <s> খুব ঘুম
-0.3010 <s> গাছগুলোতে একটি
-0.3010 <s> গাছে ফুল
-0.3010 <s> গুরুজনের সম্মান
-0.3010 <s> গোলাপ ফুলের
-0.3010 <s> ঘোড়া গাড়ি
-0.3010 <s> চল ঘুরে
-0.3010 <s> ছেলেরা ফুটবল
-0.3010 <s> জেলেরা মাছ
-0.3010 <s> ঝিনুক থেকে
-0.3010 <s> টেলিভিশনে ক্রিকেট
-0.3010 <s> তিনি নিতান্তই
-0.3010 <s> তিলে তৈল
-0.6021 <s> তুমি খুব
-0.6021 <s> তুমি বেশি
-0.3010 <s> দুধে দই
-0.3010 <s> ধোপা রোদে
-0.3010 <s> নববর্ষে মেলা
-0.6021 <s> পাখিটি উড়ে
-0.6021 <s> পাখিটি সুন্দর
-0.3010 <s> পানির অপর
-0.3010 <s> পূজার ছুটিতে
-0.3010 <s> পৃথিবীর জনসংখ্যা
-0.3010 <s> ফলের রাজা
-0.3010 <s> বনে বাঘ
-0.3010 <s> বসন্তকাল আমার
-0.3010 <s> বাইরে অনেক
-0.3010 <s> বাতাস বইছে
-0.3010 <s> বাবা বাজার
-0.3010 <s> বিনয়ীকে সবাই
-0.3010 <s> বিড়াল আরাম
-0.3010 <s> মরিচ অনেক
-0.3010 <s> মাঝি নৌকা
-0.3010 <s> মাঠে মাঠে
-0.3010 <s> মানুষ মরনশীল
-0.3010 <s> মালদ্বীপ বাংলাদেশের
-0.3010 <s> মায়ের চোখে
-0.3010 <s> মেঘনা বাংলাদেশের
-0.3010 <s> মেঘে বৃষ্টি
-0.3010 <s> যমুনার উৎস
-0.3010 <s> রাখাল বাশি
-0.7782 <s> রাতে খাওয়ার
-0.7782 <s> রাতে জোনাকি
-0.7782 <s> রাতে শিউলি
-0.3010 <s> লাইব্রেরি হচ্ছে
-0.3010 <s> লোকটিকে আমি
-0.3010 <s> লোভে পাপ,
-0.3010 <s> শরীরটা ব্যথা
-0.3010 <s> শিক্ষক ছাত্রদের
-0.3010 <s> সঠিক উত্তরে
-0.3010 <s> সন্ধ্যায় হাতমুখ
-0.3010 <s> সমুদ্র জলে
-0.3010 <s> সাপুড়ে সাপের
-0.3010 <s> সে মুখভার
-0.3010 <s> স্কুলব্যাগ থেকে
-0.3010 <s> হেমন্তে কৃষকরা
-0.3010 অনর্থ ঘটায় </s>
-0.3010 অনেক অন্ধকার ছিল
-0.3010 অনেক ঘুড়ি </s>
-0.3010 অনেক ঝাল </s>
-0.3010 অনেক ফসল </s>
-0.3010 অনেক শীত পরেছে
-0.3010 অন্ধকার ছিল </s>
-0.3010 অন্যায়ের প্রতিবাদ করতে
-0.3010 অপর নাম জীবন
-0.3010 অর্থ অনর্থ ঘটায়
-0.3010 অহংকার পতনের মূল
-0.3010 আকাশ মেঘে ঢাকা
-0.3010 আকাশটা নীল </s>
-0.3010 আকাশে অনেক ঘুড়ি
-0.3010 আগামীকাল বাড়ি যাব
-0.3010 আমরা খুলনা যাব
-0.3010 আমরা স্কুলে যাই
-0.3010 আমাদের শহীদদের প্রতি
-0.3010 আমার ছোট বোন
-0.3010 আমার প্রিয় ঋতু
-0.3010 আমার বন্ধু </s>
-0.3010 আমার শীতকাল ভালো
-0.3010 আমি চিনিনা </s>
-0.3010 আমি প্রতিদিন রাতে
-0.3010 আমি বাগানে গেলাম
-0.3010 আমি বাবার সঙ্গে
-0.3010 আরাম প্রিয় প্রানি
-0.3010 ইনি আমার বন্ধু
-0.3010 উত্তরে টিক চিহ্ন
-0.3010 উৎস হিমালয় পর্বতে
-0.3010 উড়ে যাচ্ছে </s>
-0.3010 এই কলমে ভালো
-0.3010 একটি পাতাও নেই
-0.3010 এখানে ব্রাহ্মণ পুরোহিতরা
-0.3010 এমনি করে সকাল
-0.3010 এসময় অনেক শীত
-0.3010 কচ্ছপ খুব ধির
-0.3010 কথা বল </s>
-0.3010 কথা বোলো না
-0.3010 কথা শেষে আমি
-0.3010 কদবেলে প্রচুর ভিটামিন
-0.3010 করতে হবে </s>
-0.3010 করা উচিত </s>
-0.3010 করে বসে আছে
-0.3010 করে সকাল কাটে
-0.3010 কলমে ভালো লেখা
-0.3010 কাপড় শুকাচ্ছে </s>
-0.3010 কাল পিকনিকে যাব
-0.3010 কৃষকরা ধান তুলে
-0.3010 ক্রমাগত বাড়ছে </s>
-0.3010 ক্রিকেট ম্যাচ হচ্ছিল
-0.3010 খাওয়ার জন্য সবাই
-0.3010 খুব ঘুম পাচ্ছে
-0.3010 খুব ধির গতিতে
-0.3010 খুব ভালো গান
-0.3010 খুলনা যাব </s>
-0.3010 খেলা দেখায় </s>
-0.3010 গতিতে চলে </s>
-0.3010 গাছগুলোতে একটি পাতাও
-0.3010 গাছে ফুল ফোটে
-0.3010 গান গাও </s>
-0.3010 গাড়ি টানে </s>
-0.3010 গুরুজনের সম্মান করা
-0.3010 গোলাপ ফুলের রানী
-0.3010 ঘুম পাচ্ছে </s>
-0.3010 ঘুরে আসি </s>
-0.3010 ঘোড়া গাড়ি টানে
-0.3010 চল ঘুরে আসি
-0.3010 চিহ্ন দাও </s>
-0.3010 চেয়ে ছোট দেশ
-0.3010 চোখে অপেক্ষা </s>
-0.3010 ছাত্রদের পড়াচ্ছেন </s>
-0.3010 ছুটিতে সবাই বাড়ি
-0.3010 ছেলেরা ফুটবল খেলে
-0.3010 ছোট দেশ </s>
-0.3010 ছোট বোন ফাকিবাজ
-0.3010 জনসংখ্যা ক্রমাগত বাড়ছে
-0.3010 জন্য সবাই টেবিলে
-0.3010 জলে লবন আছে
-0.3010 জানানো উচিত </s>
-0.3010 জিয়াপি এনেছেন </s>
-0.3010 জেলেরা মাছ ধরে
-0.3010 জোনাকি দেখা যায়
-0.3010 জ্ঞানের আধার </s>
-0.3010 ঝিনুক থেকে মুক্তা
-0.3010 টিক চিহ্ন দাও
-0.3010 টেবিলে বসলাম </s>
-0.3010 টেলিভিশনে ক্রিকেট ম্যাচ
-0.3010 তিনি নিতান্তই ভালো
-0.3010 তিলে তৈল হয়
-0.3010 তুমি খুব ভালো
-0.3010 তুমি বেশি কথা
-0.3010 তৈল হয় </s>
-0.3010 থেকে জিয়াপি এনেছেন
-0.3010 থেকে বইগুলো নামালাম
-0.3010 থেকে মুক্তা মেলে
-0.3010 দই হয় </s>
-0.3010 দির্ঘতম নদী </s>
-0.3010 দুধ খাই </s>
-0.3010 দুধে দই হয়
-0.3010 দেখা যায় </s>
-0.3010 ধান তুলে </s>
-0.3010 ধির গতিতে চলে
-0.3010 ধুয়ে পড়তে বসলাম
-0.3010 ধোপা রোদে কাপড়
-0.3010 নববর্ষে মেলা বসে।
-0.3010 নাম জীবন </s>
-0.3010 নিতান্তই ভালো মানুষ
-0.3010 নৌকা চালায় </s>
-0.3010 পছন্দ করে </s>
-0.3010 পতনের মূল </s>
-0.3010 পাখিটি উড়ে যাচ্ছে
-0.3010 পাখিটি সুন্দর </s>
-0.3010 পাতাও নেই </s>
-0.3010 পানির অপর নাম
-0.3010 পাপ, পাপে মৃত্যু
-0.3010 পাপে মৃত্যু </s>
-0.3010 পিকনিকে যাব </s>
-0.3010 পুরোহিতরা থাকেন </s>
-0.3010 পূজার ছুটিতে সবাই
-0.3010 পৃথিবীর জনসংখ্যা ক্রমাগত
-0.3010 প্রচুর ভিটামিন আছে
-0.3010 প্রতি শ্রদ্ধা জানানো
-0.3010 প্রতিদিন রাতে দুধ
-0.3010 প্রতিবাদ করতে হবে
-0.3010 প্রভাতফেরি গিয়েছিলাম </s>
-0.3010 প্রিয় ঋতু </s>
-0.3010 প্রিয় প্রানি </s>
-0.3010 পড়তে বসলাম </s>
-0.3010 ফলের রাজা আম
-0.3010 ফুটবল খেলে </s>
-0.3010 ফুল ফোটে </s>
-0.3010 ফুলের রানী </s>
-0.3010 বইগুলো নামালাম </s>
-0.3010 বনে বাঘ থাকে
-0.3010 বসন্তকাল আমার প্রিয়
-0.3010 বসে আছে </s>
-0.3010 বাংলাদেশের চেয়ে ছোট
-0.3010 বাংলাদেশের দির্ঘতম নদী
-0.3010 বাইরে অনেক অন্ধকার
-0.3010 বাগানে গেলাম </s>
-0.3010 বাঘ থাকে </s>
-0.3010 বাজার থেকে জিয়াপি
-0.3010 বাতাস বইছে </s>
-0.3010 বাবা বাজার থেকে
-0.3010 বাবার সঙ্গে প্রভাতফেরি
-0.3010 বাশি বাজায় </s>
-0.3010 বাড়ি ফিরছে </s>
-0.3010 বাড়ি যাব </s>
-0.3010 বিনয়ীকে সবাই পছন্দ
-0.3010 বিড়াল আরাম প্রিয়
-0.3010 বৃষ্টি হয় </s>
-0.3010 বেশি কথা বল
-0.3010 বোন ফাকিবাজ </s>
-0.3010 বোলো না </s>
-0.3010 ব্যথা করছিল </s>
-0.3010 ব্রাহ্মণ পুরোহিতরা থাকেন
-0.3010 ভালো গান গাও
-0.3010 ভালো মানুষ </s>
-0.3010 ভালো লাগে </s>
-0.3010 ভালো লেখা হয়
-0.3010 ভিটামিন আছে </s>
-0.3010 মরিচ অনেক ঝাল
-0.3010 মাছ ধরে </s>
-0.3010 মাঝি নৌকা চালায়
-0.3010 মাঠে অনেক ফসল
-0.3010 মাঠে মাঠে অনেক
-0.3010 মানুষ মরনশীল </s>
-0.3010 মালদ্বীপ বাংলাদেশের চেয়ে
-0.3010 মায়ের চোখে অপেক্ষা
-0.3010 মুক্তা মেলে </s>
-0.3010 মুখভার করে বসে
-0.3010 মেঘনা বাংলাদেশের দির্ঘতম
-0.3010 মেঘে ঢাকা </s>
-0.3010 মেঘে বৃষ্টি হয়
-0.3010 মেলা বসে। </s>
-0.3010 ম্যাচ হচ্ছিল </s>
-0.3010 যমুনার উৎস হিমালয়
-0.3010 রাখাল বাশি বাজায়
-0.3010 রাজা আম </s>
-0.3010 রাতে খাওয়ার জন্য
-0.3010 রাতে জোনাকি দেখা
-0.3010 রাতে দুধ খাই
-0.3010 রাতে শিউলি ফোটে
-0.3010 রোদে কাপড় শুকাচ্ছে
-0.3010 লবন আছে </s>
-0.3010 লাইব্রেরি হচ্ছে জ্ঞানের
-0.3010 লেখা হয় </s>
-0.3010 লোকটিকে আমি চিনিনা
-0.3010 লোভে পাপ, পাপে
-0.3010 শরীরটা ব্যথা করছিল
-0.3010 শহীদদের প্রতি শ্রদ্ধা
-0.3010 শিউলি ফোটে </s>
-0.3010 শিক্ষক ছাত্রদের পড়াচ্ছেন
-0.3010 শীত পরেছে </s>
-0.3010 শীতকাল ভালো লাগে
-0.3010 শেষে আমি বাগানে
-0.3010 শ্রদ্ধা জানানো উচিত
-0.3010 সকাল কাটে </s>
-0.3010 সঙ্গে প্রভাতফেরি গিয়েছিলাম
-0.3010 সঠিক উত্তরে টিক
-0.3010 সন্ধ্যায় হাতমুখ ধুয়ে
-0.3010 সবাই টেবিলে বসলাম
-0.3010 সবাই পছন্দ করে
-0.3010 সবাই বাড়ি ফিরছে
-0.3010 সমুদ্র জলে লবন
-0.3010 সম্মান করা উচিত
-0.3010 সাপুড়ে সাপের খেলা
-0.3010 সাপের খেলা দেখায়
-0.3010 সে মুখভার করে
-0.3010 স্কুলব্যাগ থেকে বইগুলো
-0.3010 স্কুলে যাই </s>
-0.3010 হচ্ছে জ্ঞানের আধার
-0.3010 হাতমুখ ধুয়ে পড়তে
-0.3010 হিমালয় পর্বতে </s>
-0.3010 হেমন্তে কৃষকরা ধান

\end\
